digraph Tree {
node [shape=box, style="filled, rounded", color="black", fontname=helvetica] ;
edge [fontname=helvetica] ;
0 [label=<votes &le; 3.5<br/>gini = 0.511<br/>samples = 4639<br/>value = [1606, 2808, 225]>, fillcolor="#39e58165"] ;
1 [label=<gini = 0.0<br/>samples = 1606<br/>value = [1606, 0, 0]>, fillcolor="#e58139ff"] ;
0 -> 1 [labeldistance=2.5, labelangle=45, headlabel="True"] ;
2 [label=<votes &le; 263.0<br/>gini = 0.137<br/>samples = 3033<br/>value = [0, 2808, 225]>, fillcolor="#39e581eb"] ;
0 -> 2 [labeldistance=2.5, labelangle=-45, headlabel="False"] ;
3 [label=<country_code &le; 7.5<br/>gini = 0.044<br/>samples = 2822<br/>value = [0, 2759, 63]>, fillcolor="#39e581f9"] ;
2 -> 3 ;
4 [label=<latitude &le; 29.551<br/>gini = 0.017<br/>samples = 2742<br/>value = [0, 2719, 23]>, fillcolor="#39e581fd"] ;
3 -> 4 ;
5 [label=<longitude &le; 88.555<br/>gini = 0.015<br/>samples = 2735<br/>value = [0, 2715, 20]>, fillcolor="#39e581fd"] ;
4 -> 5 ;
6 [label=<gini = 0.014<br/>samples = 2734<br/>value = [0, 2715, 19]>, fillcolor="#39e581fd"] ;
5 -> 6 ;
7 [label=<gini = 0.0<br/>samples = 1<br/>value = [0, 0, 1]>, fillcolor="#8139e5ff"] ;
5 -> 7 ;
8 [label=<cuisine_rate &le; 0.5<br/>gini = 0.49<br/>samples = 7<br/>value = [0, 4, 3]>, fillcolor="#39e58140"] ;
4 -> 8 ;
9 [label=<gini = 0.0<br/>samples = 3<br/>value = [0, 0, 3]>, fillcolor="#8139e5ff"] ;
8 -> 9 ;
10 [label=<gini = 0.0<br/>samples = 4<br/>value = [0, 4, 0]>, fillcolor="#39e581ff"] ;
8 -> 10 ;
11 [label=<votes &le; 38.0<br/>gini = 0.5<br/>samples = 80<br/>value = [0, 40, 40]>, fillcolor="#39e58100"] ;
3 -> 11 ;
12 [label=<latitude &le; -19.375<br/>gini = 0.239<br/>samples = 36<br/>value = [0, 31, 5]>, fillcolor="#39e581d6"] ;
11 -> 12 ;
13 [label=<gini = 0.444<br/>samples = 6<br/>value = [0, 2, 4]>, fillcolor="#8139e57f"] ;
12 -> 13 ;
14 [label=<gini = 0.064<br/>samples = 30<br/>value = [0, 29, 1]>, fillcolor="#39e581f6"] ;
12 -> 14 ;
15 [label=<longitude &le; -90.536<br/>gini = 0.325<br/>samples = 44<br/>value = [0, 9, 35]>, fillcolor="#8139e5bd"] ;
11 -> 15 ;
16 [label=<gini = 0.0<br/>samples = 4<br/>value = [0, 4, 0]>, fillcolor="#39e581ff"] ;
15 -> 16 ;
17 [label=<gini = 0.219<br/>samples = 40<br/>value = [0, 5, 35]>, fillcolor="#8139e5db"] ;
15 -> 17 ;
18 [label=<has_online_delivery &le; 0.5<br/>gini = 0.357<br/>samples = 211<br/>value = [0, 49, 162]>, fillcolor="#8139e5b2"] ;
2 -> 18 ;
19 [label=<has_table_booking &le; 0.5<br/>gini = 0.185<br/>samples = 165<br/>value = [0, 17, 148]>, fillcolor="#8139e5e2"] ;
18 -> 19 ;
20 [label=<latitude &le; 28.55<br/>gini = 0.096<br/>samples = 138<br/>value = [0, 7, 131]>, fillcolor="#8139e5f1"] ;
19 -> 20 ;
21 [label=<gini = 0.025<br/>samples = 79<br/>value = [0, 1, 78]>, fillcolor="#8139e5fc"] ;
20 -> 21 ;
22 [label=<gini = 0.183<br/>samples = 59<br/>value = [0, 6, 53]>, fillcolor="#8139e5e2"] ;
20 -> 22 ;
23 [label=<country_code &le; 81.5<br/>gini = 0.466<br/>samples = 27<br/>value = [0, 10, 17]>, fillcolor="#8139e569"] ;
19 -> 23 ;
24 [label=<gini = 0.469<br/>samples = 16<br/>value = [0, 10, 6]>, fillcolor="#39e58166"] ;
23 -> 24 ;
25 [label=<gini = 0.0<br/>samples = 11<br/>value = [0, 0, 11]>, fillcolor="#8139e5ff"] ;
23 -> 25 ;
26 [label=<latitude &le; 27.671<br/>gini = 0.423<br/>samples = 46<br/>value = [0, 32, 14]>, fillcolor="#39e5818f"] ;
18 -> 26 ;
27 [label=<gini = 0.0<br/>samples = 11<br/>value = [0, 0, 11]>, fillcolor="#8139e5ff"] ;
26 -> 27 ;
28 [label=<votes &le; 1027.5<br/>gini = 0.157<br/>samples = 35<br/>value = [0, 32, 3]>, fillcolor="#39e581e7"] ;
26 -> 28 ;
29 [label=<gini = 0.0<br/>samples = 31<br/>value = [0, 31, 0]>, fillcolor="#39e581ff"] ;
28 -> 29 ;
30 [label=<gini = 0.375<br/>samples = 4<br/>value = [0, 1, 3]>, fillcolor="#8139e5aa"] ;
28 -> 30 ;
}